/*
 * Copyright (c) 2025 EdgeImpulse Inc.
 *
 * Generated by Edge Impulse and licensed under the applicable Edge Impulse
 * Terms of Service. Community and Professional Terms of Service
 * (https://edgeimpulse.com/legal/terms-of-service) or Enterprise Terms of
 * Service (https://edgeimpulse.com/legal/enterprise-terms-of-service),
 * according to your product plan subscription (the “License”).
 *
 * This software, documentation and other associated files (collectively referred
 * to as the “Software”) is a single SDK variation generated by the Edge Impulse
 * platform and requires an active paid Edge Impulse subscription to use this
 * Software for any purpose.
 *
 * You may NOT use this Software unless you have an active Edge Impulse subscription
 * that meets the eligibility requirements for the applicable License, subject to
 * your full and continued compliance with the terms and conditions of the License,
 * including without limitation any usage restrictions under the applicable License.
 *
 * If you do not have an active Edge Impulse product plan subscription, or if use
 * of this Software exceeds the usage limitations of your Edge Impulse product plan
 * subscription, you are not permitted to use this Software and must immediately
 * delete and erase all copies of this Software within your control or possession.
 * Edge Impulse reserves all rights and remedies available to enforce its rights.
 *
 * Unless required by applicable law or agreed to in writing, the Software is
 * distributed on an "AS IS" BASIS, WITHOUT WARRANTIES OR CONDITIONS OF ANY KIND,
 * either express or implied. See the License for the specific language governing
 * permissions, disclaimers and limitations under the License.
 */
// Generated on: 14.12.2025 04:57:08

#include <stdio.h>
#include <stdlib.h>
#include "edge-impulse-sdk/tensorflow/lite/c/builtin_op_data.h"
#include "edge-impulse-sdk/tensorflow/lite/c/common.h"
#include "edge-impulse-sdk/tensorflow/lite/micro/micro_mutable_op_resolver.h"
#include "edge-impulse-sdk/porting/ei_classifier_porting.h"

#if EI_CLASSIFIER_PRINT_STATE
#if defined(__cplusplus) && EI_C_LINKAGE == 1
extern "C" {
    extern void ei_printf(const char *format, ...);
}
#else
extern void ei_printf(const char *format, ...);
#endif
#endif

#define STRINGIZE(x) #x
#define STRINGIZE_VALUE_OF(x) STRINGIZE(x)

#if defined (__GNUC__)  /* GNU compiler */
#define ALIGN(X) __attribute__((aligned(X)))
#define DEFINE_SECTION(x) __attribute__((section(x)))
#elif defined (_MSC_VER)
#define ALIGN(X) __declspec(align(X))
#elif defined (__TASKING__) /* TASKING Compiler */
#define ALIGN(X) __align(X)
#define DEFINE_SECTION(x) __attribute__((section(x)))
#elif defined (__ARMCC_VERSION) /* Arm Compiler */
#define ALIGN(X) __ALIGNED(x)
#define DEFINE_SECTION(x) __attribute__((section(x)))
#elif defined (__ICCARM__) /* IAR Compiler */
#define ALIGN(x) __attribute__((aligned(x)))
#define DEFINE_SECTION(x) __attribute__((section(x)))
#elif defined (__clang__) /* LLVM/Clang Compiler */
#define ALIGN(X) __ALIGNED(x)
#define DEFINE_SECTION(x) __attribute__((section(x)))
#endif

#if defined(EI_MODEL_SECTION) && (defined(__GNUC__) || defined(__clang__))
#define MODEL_SECTION(X) __attribute__((section(STRINGIZE_VALUE_OF(X))))
#else
#define MODEL_SECTION(X)
#endif

#ifndef EI_MAX_SCRATCH_BUFFER_COUNT
#ifndef CONFIG_IDF_TARGET_ESP32S3
#define EI_MAX_SCRATCH_BUFFER_COUNT 4
#else
#define EI_MAX_SCRATCH_BUFFER_COUNT 4
#endif // CONFIG_IDF_TARGET_ESP32S3
#endif // EI_MAX_SCRATCH_BUFFER_COUNT

#ifndef EI_MAX_OVERFLOW_BUFFER_COUNT
#define EI_MAX_OVERFLOW_BUFFER_COUNT 10
#endif // EI_MAX_OVERFLOW_BUFFER_COUNT

using namespace tflite;
using namespace tflite::ops;
using namespace tflite::ops::micro;

namespace {

#if defined(EI_CLASSIFIER_ALLOCATION_STATIC_HIMAX) || defined(EI_CLASSIFIER_ALLOCATION_STATIC_HIMAX_GNU)
constexpr int kTensorArenaSize = 1744;
#else
constexpr int kTensorArenaSize = 720;
#endif

#if defined(EI_CLASSIFIER_ALLOCATION_STATIC)
#if defined (EI_TENSOR_ARENA_LOCATION)
uint8_t tensor_arena[kTensorArenaSize] ALIGN(16) DEFINE_SECTION(STRINGIZE_VALUE_OF(EI_TENSOR_ARENA_LOCATION));
#else
uint8_t tensor_arena[kTensorArenaSize] ALIGN(16);
#endif
#elif defined(EI_CLASSIFIER_ALLOCATION_STATIC_HIMAX)
#pragma Bss(".tensor_arena")
uint8_t tensor_arena[kTensorArenaSize] ALIGN(16);
#pragma Bss()
#elif defined(EI_CLASSIFIER_ALLOCATION_STATIC_HIMAX_GNU)
uint8_t tensor_arena[kTensorArenaSize] ALIGN(16) __attribute__((section(".tensor_arena")));
#else
#define EI_CLASSIFIER_ALLOCATION_HEAP 1
uint8_t* tensor_arena = NULL;
#endif

static uint8_t* tensor_boundary;
static uint8_t* current_location;

template <int SZ, class T> struct TfArray {
  int sz; T elem[SZ];
};

enum used_operators_e {
  OP_FULLY_CONNECTED, OP_SOFTMAX,  OP_LAST
};

struct TensorInfo_t { // subset of TfLiteTensor used for initialization from constant memory
  TfLiteAllocationType allocation_type;
  TfLiteType type;
  void* data;
  TfLiteIntArray* dims;
  size_t bytes;
  TfLiteQuantization quantization;
};

typedef struct {
  TfLiteTensor tensor;
  int16_t index;
} TfLiteTensorWithIndex;

typedef struct {
  TfLiteEvalTensor tensor;
  int16_t index;
} TfLiteEvalTensorWithIndex;

TfLiteContext ctx{};
static const int MAX_TFL_TENSOR_COUNT = 4;
static TfLiteTensorWithIndex tflTensors[MAX_TFL_TENSOR_COUNT];
static const int MAX_TFL_EVAL_COUNT = 4;
static TfLiteEvalTensorWithIndex tflEvalTensors[MAX_TFL_EVAL_COUNT];
TfLiteRegistration registrations[OP_LAST];

namespace g0 {
const TfArray<2, int> tensor_dimension0 = { 2, { 1,382 } };
const TfArray<1, float> quant0_scale = { 1, { 0.06032136082649231, } };
const TfArray<1, int> quant0_zero = { 1, { -25 } };
const TfLiteAffineQuantization quant0 = { (TfLiteFloatArray*)&quant0_scale, (TfLiteIntArray*)&quant0_zero, 0 };
const MODEL_SECTION(EI_MODEL_SECTION) ALIGN(8) int32_t tensor_data1[2] = { -31, 31, };
const TfArray<1, int> tensor_dimension1 = { 1, { 2 } };
const TfArray<1, float> quant1_scale = { 1, { 0.00029707670910283923, } };
const TfArray<1, int> quant1_zero = { 1, { 0 } };
const TfLiteAffineQuantization quant1 = { (TfLiteFloatArray*)&quant1_scale, (TfLiteIntArray*)&quant1_zero, 0 };
const MODEL_SECTION(EI_MODEL_SECTION) ALIGN(16) int8_t tensor_data2[2*10] = { 
  60, -108, 70, 110, 127, -75, -31, -106, 13, 90, 
  76, 25, -23, -30, -101, -1, -123, 57, -94, 29, 
};
const TfArray<2, int> tensor_dimension2 = { 2, { 2,10 } };
const TfArray<1, float> quant2_scale = { 1, { 0.0058556757867336273, } };
const TfLiteAffineQuantization quant2 = { (TfLiteFloatArray*)&quant2_scale, (TfLiteIntArray*)&g0::quant1_zero, 0 };
const MODEL_SECTION(EI_MODEL_SECTION) ALIGN(16) int32_t tensor_data3[10] = { 3, 196, 59, 1, 11, -43, 86, 74, -34, -35, };
const TfArray<1, int> tensor_dimension3 = { 1, { 10 } };
const TfArray<1, float> quant3_scale = { 1, { 0.00012619954941328615, } };
const TfLiteAffineQuantization quant3 = { (TfLiteFloatArray*)&quant3_scale, (TfLiteIntArray*)&g0::quant1_zero, 0 };
const MODEL_SECTION(EI_MODEL_SECTION) ALIGN(16) int8_t tensor_data4[10*20] = { 
  39, -76, -58, 30, 106, 6, 127, -102, 7, -50, 21, 16, 69, 121, 50, -81, 17, -32, -72, 5, 
  -53, -108, 77, 84, 65, -40, -29, -92, -75, 18, -49, -47, 74, 37, 71, 88, -31, 35, -41, -46, 
  -22, -94, -3, 102, -49, -57, -36, 20, -39, -11, 30, 51, -22, -83, -11, -65, 81, -92, -94, -77, 
  56, 11, 82, -12, -74, 82, -71, -45, -39, 70, 94, 50, -81, -104, -1, -42, -41, -47, 106, 96, 
  -44, 56, -101, -56, -91, 76, -43, 25, -101, 58, 85, 59, -29, 34, 27, -90, -62, 101, 75, 71, 
  -84, 69, -66, 48, -28, -112, -6, 74, -111, -45, 76, 56, -48, 62, -25, -67, -35, 59, -68, 2, 
  88, 44, -61, -88, 71, 86, 0, -33, -35, 2, 59, 45, -78, -50, 15, -15, 44, -8, -8, -17, 
  -13, 89, 56, 77, 2, 78, 103, -106, 123, -28, -55, 107, 75, -11, -97, 47, 99, 3, 10, 66, 
  59, 38, 43, 23, 72, 38, -122, -26, -41, 11, 90, 23, -15, -115, -30, 93, -97, 73, -40, -15, 
  41, -70, -27, -20, 64, 103, -39, 11, 61, -90, -59, 49, -85, -67, 55, -16, -34, 88, 6, 90, 
};
const TfArray<2, int> tensor_dimension4 = { 2, { 10,20 } };
const TfArray<1, float> quant4_scale = { 1, { 0.0039805551059544086, } };
const TfLiteAffineQuantization quant4 = { (TfLiteFloatArray*)&quant4_scale, (TfLiteIntArray*)&g0::quant1_zero, 0 };
const MODEL_SECTION(EI_MODEL_SECTION) ALIGN(16) int32_t tensor_data5[20] = { -60, -63, 120, 86, 152, 42, 101, -49, 80, -44, -87, 94, 117, 94, 83, -61, 62, 6, 46, -5, };
const TfArray<1, int> tensor_dimension5 = { 1, { 20 } };
const TfArray<1, float> quant5_scale = { 1, { 8.5872052295599133e-05, } };
const TfLiteAffineQuantization quant5 = { (TfLiteFloatArray*)&quant5_scale, (TfLiteIntArray*)&g0::quant1_zero, 0 };
const MODEL_SECTION(EI_MODEL_SECTION) ALIGN(16) int8_t tensor_data6[20*382] = { 
  -4, -15, -22, 66, 20, 37, 21, -58, 24, -71, -6, 27, -78, -59, -22, 71, 17, 58, -45, -44, 69, -26, 67, 11, -81, 50, -45, -45, -62, -79, 17, 22, 47, -73, -83, 33, -56, 57, -12, -58, 34, -11, -67, -29, -77, 66, -33, 70, -59, -64, -19, -82, 30, -22, -75, 50, 76, 59, 80, 46, 28, -38, 5, -63, -17, -63, -2, 24, 68, -15, 16, -75, -56, -26, -22, -50, 55, 36, -15, 66, 20, -7, -18, 22, -21, 7, -89, -14, -68, -83, 25, -23, -47, 67, -13, -84, 77, 41, -67, -37, -10, -89, 13, 39, -26, -38, -36, 0, -50, -44, 63, 20, -1, 50, -46, 74, -42, 25, -88, 23, 35, -2, 14, 74, -88, -19, 49, 1, 63, -16, -77, -53, 74, 20, 64, -49, 0, 78, -24, -1, 37, -6, -60, -57, -36, -21, -23, 37, -54, -47, -40, 45, -22, 45, 22, -35, 60, 15, -87, -6, 26, 60, -51, -39, -33, -40, -65, -65, 48, 66, -50, -21, -26, -30, -18, 58, 42, 39, -59, -65, 5, 25, -79, -61, 2, 26, -43, -85, 44, -4, 74, -60, 9, 79, 40, 30, -57, 58, -80, -9, -31, 47, 71, 22, 21, -57, 53, -49, 27, 57, 74, 45, -19, -34, -30, -19, -28, -44, -26, -49, 26, 47, 32, -75, 70, -64, -27, -47, -86, 80, -24, -79, -40, -33, -78, -62, 68, 12, 61, 66, -39, -57, 36, -54, 58, 63, -50, -1, -40, 73, 23, 51, -17, 31, -83, -47, -8, 26, -45, 23, 4, 67, -46, 12, -11, 64, -12, 60, 58, 72, 41, -38, -17, -13, -18, -86, -77, 30, -22, -49, 71, -53, 8, -34, -55, -8, -62, -36, -35, -28, -21, 82, 10, -44, 64, 25, -14, -20, 6, 60, -1, 40, 16, -87, 37, -38, 74, -86, 26, 28, -31, -88, -15, -30, -5, -5, -10, -53, -5, -80, 28, -41, -4, 12, 13, -78, -19, 16, -8, -30, -36, 18, -79, -38, -12, 61, -17, 69, -78, -70, -77, -60, 32, 20, -30, 32, -58, -13, 16, -41, 66, 75, -67, -80, 27, 6, -5, -45, 42, 4, -14, -21, 49, 81, 39, -4, -60, 22, -35, 68, 19, -44, 38, 56, 6, 24, -78, -44, 30, -15, 36, 55, 
  -87, -10, 65, 7, -29, 10, 22, 21, 33, 74, -58, 32, 8, 12, 48, -49, 62, 38, 81, -54, -18, -12, 66, -20, 39, 37, -18, 58, -24, -66, -17, 76, 69, 78, 54, -31, -71, -12, 18, -42, -39, -50, 78, 56, 45, -26, 59, -62, 3, -3, -81, -14, 0, -35, -15, -90, -84, 64, 67, -71, -19, 54, -38, -18, -25, -3, 60, -88, 43, -26, 72, -52, 46, -9, 8, 65, -30, -52, -10, 72, -15, -89, -47, -5, 35, 3, -21, -66, 12, -25, 22, 23, 72, 15, 1, 44, -44, -74, 10, -79, 14, 77, -5, -16, -62, 36, 58, -58, -19, -19, -29, -78, 79, 21, -28, 70, 18, 13, -67, -63, 17, -83, -31, -48, 35, -12, -6, 28, -74, 75, -34, -29, 49, -30, 75, 48, -57, -31, -17, 49, -85, 8, -13, -42, -1, 49, 48, 36, -37, -54, -43, -34, -43, -36, -37, 56, 48, 73, -63, -44, -54, -73, 42, -43, -74, -31, -68, 10, -78, -26, -21, -58, 31, -33, -18, 51, 41, -32, -50, -55, -69, 16, 25, 22, -23, 61, -11, -20, 48, 77, 62, 31, 57, 69, -16, 13, -53, -77, -77, 69, 56, -35, -75, 4, -53, 5, 42, 70, 37, 54, -52, -20, -5, -13, -68, 0, 21, 25, -10, -65, -74, -75, 30, -41, 24, 66, -26, -24, -41, -74, 80, 56, 62, 40, -57, -53, 1, -8, -15, -2, -82, 43, 13, 80, -13, -18, -9, -71, 22, 65, 30, -54, 3, 17, 82, 25, -33, -11, -70, 43, -89, -33, 69, -60, 47, -32, -86, -20, 70, -77, -53, -28, 46, 39, 78, -78, 50, -5, 23, -13, -60, -53, 9, 22, 21, -33, 31, -87, 77, -73, 11, -36, -27, 18, -25, -4, -25, 2, 41, 2, 69, -1, -34, -9, 7, -22, -52, -31, -81, 24, 13, 53, 67, -78, 73, -32, 58, 77, 10, 5, -27, 70, 18, -80, 62, -11, 14, -35, 52, -17, -44, -34, -14, 77, 48, 71, -36, 6, 59, -62, 65, 59, -10, 39, 23, 32, 11, -59, -60, -80, 82, 38, 61, 36, 64, -29, -25, -81, -66, -20, -76, 25, 78, 45, -37, 83, 29, 76, -80, -29, -45, -1, 45, 33, -18, 54, -84, -80, 52, 10, -71, 61, 
  62, -2, -63, -45, 48, -34, 62, 81, 91, 2, -59, 24, -51, 52, -37, 69, 41, 57, 10, 44, 94, -68, 59, -56, 19, -9, 90, 49, -35, -57, -31, 63, 53, -59, -9, -20, -61, 4, 60, -54, 55, 49, -71, -2, 37, -9, -34, -57, 39, -13, 52, -12, -7, 5, 54, -62, 17, 14, 17, -16, 84, -23, -9, 23, -19, 54, 22, -41, -18, -22, 3, -80, 12, 70, -11, -73, -70, 48, -40, -44, 36, -47, 31, -3, 14, 21, -16, 5, -68, 5, -58, 72, 16, -33, 81, 57, 24, 38, 22, 22, -85, -71, -36, -52, 45, -37, 76, 63, 4, -17, -45, 40, 1, -74, -57, -75, 35, 83, -18, 44, -35, 74, 82, -81, 77, 72, 23, 53, -74, -13, 49, -57, 12, 37, 42, 41, -34, 71, 55, 27, -10, 75, 83, 73, -73, -1, -70, 10, -30, 9, 36, -44, -33, 16, 41, 89, 43, -22, 70, -60, 5, 60, 17, 79, -5, -54, -36, -16, -30, -11, -60, -16, 6, -81, -21, 19, 55, -36, -43, -72, 55, -64, -4, 79, -47, 14, 46, -6, 43, -53, 6, 29, -28, 72, 4, -57, 25, -66, -56, 2, 81, 1, 19, -23, -64, -59, 30, 10, -72, 76, 67, -77, -29, -28, 54, 37, -73, 65, 76, -80, 2, 24, 48, -31, -48, 15, 11, -77, -56, -14, 7, 34, -30, 18, 88, 2, 56, 22, 66, -48, -55, 80, -70, -11, 27, -72, 12, 4, 79, -25, 28, 56, 78, -29, 51, -33, -64, 75, -79, -58, 40, -53, 16, -63, -34, 67, 54, -35, 39, 33, 37, 36, 64, -2, 13, 14, -16, -20, -52, -32, 59, -36, -28, 34, -48, 11, 23, -54, 59, -75, -22, -62, 87, 93, 82, -12, 73, -33, 62, -52, 73, 64, 34, -55, 4, -25, 11, -23, 88, 22, -36, 74, -44, 22, 82, 0, 91, 91, -4, 78, 11, -59, 17, 88, 67, 86, -76, 25, -45, 40, 37, 23, 26, -26, -29, 42, -48, -21, 0, -26, 109, 32, 8, -83, 30, 74, 68, -105, 19, 92, 47, 27, 89, -109, -56, -49, -28, 52, 105, -87, -64, -13, 34, 91, -37, 85, -43, -73, -62, -76, -20, 22, -41, -84, -44, -29, -68, -38, -68, -17, -9, -35, 
  -65, 52, -37, 65, 4, 58, 1, 91, 51, -63, 71, 76, 51, 62, 47, -10, -51, -36, 35, 59, -47, 44, -44, -22, 58, 54, -54, 55, 78, 63, -27, 41, 78, -39, 56, 17, 93, -75, 26, 67, -59, 54, 8, 76, 84, -61, 5, -45, 57, 46, -48, 2, -11, -81, 29, -59, -67, -85, -29, -6, 80, 32, 82, 68, -54, -74, 50, -69, -48, -73, 54, -45, -43, -65, 19, 25, -22, 83, 28, 87, 15, 49, 56, -31, -12, -63, -5, -29, 47, -31, 33, 26, -77, 3, 62, -36, -56, -26, 54, -27, -34, -8, 73, -43, -37, -12, 8, -23, 8, 18, -79, 5, -10, 51, -3, 67, -86, -2, 57, 1, -72, 71, -2, 25, -70, 2, -3, -56, 16, 15, -33, -85, -28, 67, -19, -43, -51, 25, 11, 52, 52, 55, 26, -38, 8, 15, -36, -56, -30, -67, -23, -56, 62, 81, -49, 34, 23, 87, -44, -70, -34, 35, 67, 53, -48, 18, -31, -62, 31, 15, -75, -29, 1, -76, 55, 40, 33, 41, 58, -83, -19, 62, 67, 65, -4, -81, -9, 58, 9, -47, -16, -61, 2, -48, 4, 78, -30, -55, -48, -35, -38, -14, -48, -35, 10, 0, 11, 57, 86, 3, -1, 81, -4, -17, -23, -29, -75, 2, -66, -55, 91, 32, 66, -17, 87, -73, 66, -75, -43, 21, 4, 81, -78, 76, -53, 27, -31, 4, 76, 81, -1, 29, 71, -62, -66, -20, 11, 21, -79, -26, -71, 39, -15, -73, -1, -27, -53, 77, 79, 43, -13, -48, 48, -31, -58, -8, 38, -48, -3, -48, 34, 83, 23, -39, -56, -9, 63, -18, -29, 16, 85, 92, 49, 26, 80, -42, 69, -49, -43, -1, -35, -53, -77, 66, -11, -41, 28, -35, -22, 32, -22, -14, 4, -79, 16, 17, 27, -9, 83, -26, 40, 36, 32, 60, 85, 28, 66, -43, -55, -62, -37, -46, -44, -67, -3, -35, 31, -55, -45, 53, 83, 59, 22, 2, 12, 77, 40, 83, 29, -33, 65, -88, -20, -4, -30, 8, 30, -119, -109, -4, 53, -57, 10, -9, 15, 45, 22, -20, 68, -87, 39, 43, -26, 12, 38, 29, 20, -47, -83, 36, -9, 46, 30, 34, 66, 15, 119, 34, 46, -3, -99, -46, 
  78, 29, 25, -35, -53, -51, 83, -8, -28, 61, -18, 28, -40, -24, -44, 58, 65, 65, 3, -9, 3, 91, -3, 0, -16, 18, 72, 66, -67, -56, 53, -45, 87, -57, -18, -33, -13, -67, 32, 62, 23, 32, -64, -17, 55, -44, 74, 64, -6, 68, 65, 70, -56, -14, -12, 90, 63, 69, 83, 58, -65, -60, 83, 89, 11, 54, -31, 92, -74, -12, -65, 26, 66, 30, 40, 41, -24, -20, -38, -24, 66, -81, 45, -59, 37, -40, 25, -52, 57, -23, -28, 6, 19, 53, 22, 4, 15, -22, -69, -67, -21, -71, 29, -14, 84, -47, -78, -16, -59, 26, -58, -7, -54, -9, 29, -11, -36, -59, -42, -1, 86, -16, -51, -8, -68, 8, 81, -67, -40, 27, -24, -19, 31, -19, -18, -17, 52, 54, -72, 59, 29, 15, 61, 6, 53, -83, 67, 18, -72, -76, -10, 40, -33, -47, 46, 91, 61, -41, 79, -62, -35, 53, -79, -16, -84, -60, 15, -32, 77, -25, -13, -70, -64, 47, 52, 16, -28, 50, -29, 30, -33, 8, 24, 26, 19, -66, -41, -47, 71, -52, 68, -27, 33, -48, -33, 64, 1, -14, 6, -49, -55, 85, 14, -76, -52, -67, -9, -11, -37, 11, 73, 52, 27, 31, 66, 25, -12, -73, 44, 45, 24, -11, 25, -13, -41, 69, 7, 74, -30, -20, -40, -21, 40, -27, 84, -48, -32, 99, -20, -32, 89, 70, -65, -53, 65, -41, 52, -11, 89, -75, 87, -69, 45, -74, 7, 93, 63, -4, 50, 21, 7, 83, -60, 64, 62, 69, -72, 76, -25, 81, 29, -39, -33, 58, -46, 4, 28, -22, 47, 47, 85, 27, 29, 0, 40, 7, -11, 29, 61, -75, 46, 31, -55, -43, 71, -14, -60, 42, -37, -75, 31, -21, -4, 42, 13, 16, -63, 60, -37, -32, -41, -61, -17, -2, 9, 65, 44, 26, 78, -74, -59, 18, 69, 39, -24, 45, -55, -1, 93, -43, -16, 73, -68, 74, -18, -71, -43, 85, 2, 87, 60, -97, -6, -85, 35, -1, 22, -93, 37, 71, -38, -75, -70, -127, 70, -41, 88, -50, -8, -87, -93, 2, -30, -47, -11, 68, -108, -29, -32, -93, -71, 13, -23, -116, -40, -5, -10, 71, 24, -58, -7, 40, 
  -23, 64, 15, -9, -31, -68, 8, 84, -33, 19, -75, -32, -85, 38, 13, -2, -81, 27, -25, 8, -66, -71, -11, -43, 63, -24, 24, -9, -39, 84, -18, -7, 66, -44, 22, -77, 56, -48, 33, 73, 56, 36, -57, -25, 18, -81, -63, -58, -2, 54, 75, -10, 30, -31, 38, 53, 31, -3, 50, 9, 26, -77, 61, -65, -18, 5, -26, 71, 76, 42, 82, -31, 62, -52, -77, -45, -2, -5, 62, 3, -58, 42, -33, 77, -3, -62, 30, -2, 94, -10, 18, 15, -39, 78, 16, 3, 2, 42, 15, 64, 1, 35, 71, -47, 22, 27, 91, -50, 42, 58, 6, 6, 39, 64, 73, 30, 56, -54, 31, -50, -82, 52, -53, 21, 10, 87, -5, -21, -29, -60, 15, 43, -41, -16, 27, 83, 40, -64, 70, 90, 54, 7, 5, -35, 26, -36, 83, 85, 83, -29, 74, 32, 42, -75, 62, -2, -13, 69, -28, 2, 60, -75, 53, -63, 66, -71, 91, -37, 55, 15, -2, 72, -65, 10, -67, 29, -61, -19, 92, 47, 77, 35, -71, -55, -3, -40, 11, -40, 89, -65, -34, 87, 51, 16, 28, -47, 80, 1, 66, 12, -3, 36, 64, 62, -74, -62, -62, -19, 16, 61, 39, -29, -26, -27, 61, -66, -47, 76, 25, -75, -52, 87, -23, -42, 70, 30, -73, -18, -54, 70, -6, 68, 44, -30, -70, 17, 28, -14, -42, -34, 67, -70, 22, 11, 32, 35, 82, 34, -34, 14, 36, -24, 37, -23, 16, -80, 14, -75, 52, -1, -64, 47, -29, -34, -6, 88, -70, 86, 40, 20, 13, -66, 71, -42, 8, 46, -19, 12, 85, -34, -56, 46, -78, 31, 34, 0, -40, -65, -5, 18, 26, 15, -61, -8, -10, 68, -66, 83, -78, -53, -68, -73, 86, 17, -30, -58, -83, -34, -60, -23, 86, 87, 2, 13, -57, 75, -24, 79, -4, 28, 42, -69, 53, 73, 65, 84, -9, -66, 1, 36, 28, -13, 55, 51, 73, 37, 0, -66, 46, -83, -42, 77, -9, -47, -29, -27, 51, -1, 97, 58, -23, 21, 18, 109, 5, -46, -33, -85, -120, 96, -13, -57, -41, -71, 40, 0, 41, 0, 8, 37, 58, 36, -83, 84, 94, -46, 70, -17, -39, -21, -26, -41, 
  47, -14, -20, -34, -42, -71, -18, 72, -20, 18, 6, 5, 11, 60, 46, -2, -23, -37, 92, 77, -31, 26, -27, 63, -23, 3, 95, -61, 78, 32, 67, -69, 11, 2, -60, 55, -68, 43, -60, 95, 0, 28, 2, 12, -33, -66, 91, -34, 1, -7, -45, 76, -68, 58, 33, -3, 12, 76, 53, -24, -48, 16, 64, -45, 42, 24, -75, 61, -57, -42, 19, 80, -20, 40, 27, 52, 41, 69, 40, -33, 68, 54, 8, 29, -46, -18, 58, 29, -36, -33, -56, 56, -32, 79, -26, -76, -37, -52, -76, -5, -51, -45, 10, -17, 87, -11, -10, -55, -44, -3, -5, 45, 55, -84, 21, -20, 49, -31, -67, -23, -40, 21, -68, 1, -31, -68, -6, 37, -26, -71, 37, -83, -8, 37, 57, 69, -63, 43, 62, 86, 34, 50, -32, -86, -61, 10, 60, -74, 66, 54, -59, 71, -10, 78, -26, -70, 20, -27, 62, -37, 86, 36, -11, -53, 56, -31, -29, 54, 65, 23, -78, 70, 61, 89, 45, -64, -74, -28, 35, -11, 67, -22, 78, 12, -29, -72, 50, -65, -57, -68, 52, -46, 63, -20, -67, -19, 59, 78, -11, 2, -44, -42, -18, -35, -2, 84, 93, 11, 17, 84, -7, 42, 72, -33, -74, -34, 9, 1, -35, 32, 15, 90, 1, -12, 27, -58, 28, 88, 90, -30, -22, 2, 53, -41, -49, 58, 5, -69, 7, -63, -33, -9, 5, -49, -61, 42, 38, 77, 78, -82, -60, -27, 13, 67, 12, -42, 79, 45, 85, 27, 85, 71, -78, 78, 62, 37, -60, -47, 8, 64, -43, -49, -55, -19, 62, 22, -29, -52, -59, 73, 69, -31, 39, -67, -48, -1, 10, -75, -30, -61, 19, -2, -12, -63, -71, -17, 60, -13, -77, 71, -44, 28, -71, -74, 5, 35, -16, 32, -47, -77, -25, 59, -55, -38, 31, 32, 39, -55, -12, -75, -3, -61, 72, 88, -31, -37, 81, -51, -74, 49, 41, -30, 30, -48, -39, -76, 32, 74, -28, -64, 38, -36, 93, -26, 33, -78, 44, -4, 22, 84, 84, 58, 97, 27, -13, 11, 45, -36, -17, 49, 7, -32, -53, 55, -53, 104, -40, -9, 77, -6, -96, 7, 49, 7, -34, -46, -90, -11, 87, 69, -110, -82, 
  59, -87, 21, 69, 70, 21, 20, 31, -30, 68, -21, 78, -33, 30, -59, -85, -31, -49, -61, 76, 67, -58, -49, -5, -22, 78, -27, 20, -84, -16, 15, 75, 15, -73, -34, -82, -18, 20, 55, -32, -18, 21, 82, 79, 26, -12, 14, -75, -53, 38, -61, -26, -19, 10, -30, -57, -77, 55, 53, -87, -60, -31, 40, -65, 42, 20, 17, -38, -42, 82, -55, 11, -19, 31, -5, 12, -35, 45, -48, 38, 81, -87, 47, -7, 18, -84, 32, 34, 53, -33, -25, -76, 8, -51, -73, -40, -32, -76, 1, 75, -30, 47, -7, -78, -14, -33, -41, -77, 76, -34, -52, -72, 11, 35, 69, -38, 61, -18, -36, 30, -31, 20, -12, -74, 29, 28, -61, -73, -19, -18, 46, -9, -22, 10, -60, 48, -20, -22, 2, -11, -15, 46, 46, 65, 28, 49, -7, -66, 53, 14, 41, -39, 3, 45, 48, 19, -37, 7, -18, -31, -14, -75, 16, -19, -19, -33, -89, 29, -84, -23, 46, -33, -35, 5, -77, 42, -48, -88, -47, -16, -10, 65, -30, -50, -67, 10, 34, 58, 80, -6, -88, -27, 45, 72, -39, 25, 73, 51, -48, 28, -45, -11, -53, 9, -17, 68, -20, -56, -36, -19, -20, -52, -83, -8, 9, 27, 78, -87, -19, 56, -29, 13, 5, 51, 13, -39, -34, -16, -69, 32, 23, -57, -88, 64, -5, 18, 23, 40, 68, 42, 45, 13, -35, -17, 39, -22, -83, 1, -85, 66, -18, 54, -37, 38, 50, -81, -34, 70, -64, 52, -62, 28, 51, -38, -77, -20, 68, 20, 12, -62, 22, 7, -44, -46, 45, -83, -88, 49, -31, -72, -5, 63, 39, -29, 70, 20, -42, -38, 52, -8, 58, 76, -76, 10, -35, 3, 16, 52, -80, 6, -51, -85, 70, -43, 66, 15, 11, 59, 19, -62, -29, 23, 64, 80, -83, -83, 71, 13, -68, 25, 58, 60, 17, -51, -77, -79, -61, -63, 14, -67, 40, -49, -22, 56, 51, 51, 0, 44, 25, 49, 71, -41, 28, 45, 20, -5, 18, 3, -6, -16, 44, -42, 72, 29, -68, -31, -69, -8, -33, -25, 46, 65, 70, -23, -23, 37, -80, 53, -20, 51, 55, -6, 29, -71, -65, -77, 38, 7, -30, -62, -3, -21, 
  51, 88, 58, -2, -64, 60, -3, -42, 0, -6, 8, 59, 57, -23, 22, -29, 47, -35, 90, 24, 86, 67, 86, 42, 58, 64, 67, -4, 76, -69, 57, -75, -5, 2, -65, -19, -66, 78, -48, 16, -34, -41, -71, -25, -69, 29, -22, -3, -38, 33, -72, -78, 90, -49, 51, 46, 16, 40, -4, -27, 58, -15, 74, -27, 7, -79, 75, 66, 57, -38, -31, -25, 18, -70, -23, -76, -60, -37, -47, 78, -40, -51, -65, -40, 78, 23, 1, 35, 48, 49, 0, -78, -80, -22, 61, -7, 74, 16, 31, -51, -63, -51, -34, 43, 13, 57, -21, 11, 17, -12, -44, 51, 9, 32, 61, 73, 22, -57, 70, -17, 65, 70, 0, -27, 46, -79, 14, 80, -80, 58, -77, 61, -90, -30, -61, -3, -56, 81, 25, 68, 71, -6, 62, -51, -73, 8, 35, -59, -78, -53, 74, 45, -50, -52, -36, 53, -88, -76, 49, -14, 46, 8, 14, -66, -24, -82, -74, 22, 19, 18, 76, -5, 15, 65, 76, -34, 70, -23, -88, 34, -72, -28, -64, -28, -1, 37, -63, -28, -73, 46, 41, 42, 1, 49, -67, 40, -7, -34, -74, 67, 61, 31, -27, -25, 29, -19, 15, -76, 75, 42, 82, -50, -62, -31, 69, 25, 78, -77, -80, 44, 72, 50, 15, -25, -40, -72, -54, -77, 54, -52, 33, -6, -38, -50, 30, -12, -17, 5, 47, 56, -7, 3, 83, 5, 66, -54, 8, 42, 75, 36, 29, -43, 77, 86, -52, 40, -72, 34, 74, 43, 44, 72, -8, -32, 60, 27, -43, -66, -78, -14, 84, 10, 13, 26, 63, 30, -55, 58, -75, -11, -44, 67, -23, -65, 86, 63, 15, -2, -60, -79, 45, 14, 87, 82, 13, 60, 41, -23, -65, 84, 33, 9, 25, 0, -40, -32, -81, 42, -31, -52, -37, -57, 36, 46, -59, -4, -67, -61, -32, -69, 71, -20, 78, 7, -2, 32, -59, 20, 26, -73, 30, 4, 44, 30, -79, -12, 39, -9, -74, -28, 117, -63, -41, -71, 0, 21, -7, 18, -33, 49, 44, 87, 52, -47, 56, 15, -65, -49, -27, -98, 65, 40, -24, 40, 27, 56, 48, -31, -38, 43, -110, 12, 20, -9, -47, 65, 64, 65, -64, -76, 16, -72, 
  -74, 36, -75, -8, -52, 48, -80, -3, -49, -88, -75, -61, -88, -25, -57, 64, -12, 47, 57, -57, -20, 51, 14, 77, 83, 55, 2, 23, -5, 36, -40, -27, -65, -5, 57, 23, 55, 62, -15, 10, 17, 33, -49, 18, -39, -88, 52, 32, 70, -69, 41, 78, -85, -83, -53, 13, 45, 6, -80, 23, -79, -49, -62, 62, -2, -23, -83, -27, -61, 33, -56, 54, 71, -1, -18, -67, 76, -27, -87, 56, 40, 79, -75, -51, -63, 62, -61, -48, 38, 13, 65, 30, -26, -13, 7, 75, -5, -82, -68, -41, 50, -68, -76, -33, 9, -7, -88, -41, 32, 28, 38, -49, -39, -40, 70, 53, 65, 44, 54, 39, 65, -86, -44, 70, -49, 36, 58, -31, -45, 31, -42, -52, -34, -27, -75, 36, 72, -5, 11, -87, 63, -61, 28, -7, 6, 28, 75, -10, -87, -11, -86, -81, -45, -68, 70, -75, -72, 39, -76, -19, -21, -87, 34, 32, 0, -88, -35, -46, -8, -55, 14, 58, 53, -30, -81, -54, 3, -64, 59, -19, -88, -5, 43, 60, 36, -62, 80, 57, -21, -6, 5, -48, -40, 78, 10, -75, -37, -31, -84, -17, 40, 19, -58, -26, 30, 49, 58, -66, 65, -4, 2, -9, 12, 65, 16, -24, 43, 71, 50, 17, 16, 24, -84, -85, -57, -51, -8, -31, 3, 28, -71, -13, -27, 16, -47, -1, 76, -84, -34, -77, -31, 22, 39, -58, 39, 20, -22, -22, 21, 81, -31, 30, -8, -41, 36, -86, -57, 81, 73, -59, 74, 75, 46, -46, 64, -36, -9, 71, -22, 10, -39, -34, 80, 60, 19, -68, 26, 24, 70, 66, -85, -1, -13, 3, 19, -62, -68, 80, -9, 7, 15, -43, 5, 39, -30, -78, -63, -67, -46, -79, 74, -86, 43, -70, 36, 3, -63, -70, -16, 29, -5, 23, 34, 51, -6, -45, -7, -51, -58, -49, -42, -12, -35, 15, 42, 0, 20, 1, 41, 36, -43, -48, 8, -49, 23, 58, -37, -12, 23, 28, 31, -53, -26, 25, -40, 35, 41, -20, -57, -73, -24, -70, 71, -48, 22, -18, -31, 56, 26, 39, 19, -6, 20, -49, 26, -35, 67, 47, 61, -53, -43, -70, -37, -79, -9, 34, 0, -56, 73, 81, 37, -38, 
  77, 15, 33, -87, -72, -39, 44, 9, -10, 23, -70, 20, 18, -71, 35, -55, -7, -6, 25, 13, -78, 34, -83, 61, 65, -20, -46, -32, 55, 53, -87, -73, -72, -24, 80, 70, -29, -72, -72, 19, 27, -16, -1, -32, -33, 54, 1, -86, 45, 28, -32, -58, -22, -11, 55, 70, -61, -41, 14, -19, 17, 24, 49, 52, 16, -88, -82, 32, 33, 18, 61, 4, -24, -40, -6, 70, 18, -59, 33, 79, -41, -64, 20, -63, -42, 52, -35, 17, -38, -49, -7, 74, 34, -50, -18, 0, -52, 25, -81, 35, 66, 47, 34, 30, 36, -45, -3, -82, 59, 1, -26, -3, 23, 35, -87, 6, -30, 67, -36, -54, -47, -76, -56, -69, 65, 35, -67, 13, 34, -82, 49, -41, -70, -85, 21, 21, -16, -82, 72, 45, -40, -68, -44, 17, -20, -87, -14, -37, 29, -40, -8, 40, 36, 68, -52, -52, -41, 5, -19, -4, 63, -79, 60, 24, -12, 2, 15, -57, -10, 2, 50, -36, -48, -82, 58, 65, 23, -2, 23, 73, 18, -81, 30, -74, -21, 47, -78, 39, 77, 1, -65, -88, 51, -90, -1, 27, -26, -50, -87, -20, 19, 60, 27, -41, -29, 43, 17, 40, 23, -22, -6, -45, 59, 26, 14, -56, -63, 74, 19, -14, -9, -10, -35, -72, -23, 15, 66, 14, -43, 59, -34, -68, -11, 46, -83, 35, 26, -58, 3, 9, -35, 40, -56, -22, 50, -8, -60, 35, -50, 80, 26, -45, -83, 77, -27, 60, -11, -5, -38, -10, -85, -61, -5, 46, 42, 29, -26, 10, -61, -50, 58, 57, -80, 5, 39, 1, 1, 32, 63, -15, 3, 45, -28, 17, 21, -54, -8, 55, 68, 43, -74, -10, -45, -82, -80, 57, 42, 78, 34, 19, -42, 68, -12, 29, -34, 36, 50, -43, -1, 17, 56, -47, -42, 9, 33, -34, -54, 35, 3, -30, 8, 38, -35, 41, 41, 36, -72, -3, -67, 56, -86, 15, -76, -56, -35, 9, -58, -45, 40, 79, -30, -27, -65, -77, 17, 5, 51, 73, 65, 75, -37, 18, -20, -78, 79, 18, -32, 22, 6, 10, 33, -39, -81, 68, -59, -21, -61, -74, -81, -72, 2, -20, 3, 11, 10, 50, 19, -73, -26, 37, 43, -56, 
  -6, 32, 79, -29, -64, -74, 87, -31, 66, -16, 81, 80, 56, 79, -31, 41, -36, -24, 81, 7, -16, -16, 82, 5, 30, 35, 58, 48, 90, 36, -6, -13, 6, -24, 28, -13, -58, 25, 23, 48, 38, 69, 78, -12, -38, -21, 22, 42, -70, -4, -60, 63, 31, 35, 81, 55, 48, -5, 15, -62, 72, 52, 6, -19, 69, 59, 64, -14, -12, -13, -59, 14, -40, -37, 78, 37, 48, 80, 49, 21, 50, 91, -59, -33, -73, -70, -47, 47, 3, 63, 53, -55, -67, -48, 32, 38, 53, 73, 5, -8, 5, 6, 70, 64, 59, 49, 20, 93, 15, -57, -1, 34, 51, 45, -61, -38, -61, 21, 64, 36, 89, 84, 21, -5, 4, -11, -33, -50, 99, 83, -41, 68, 51, -1, -62, 30, -57, 69, -34, 63, 4, 23, -6, 52, 72, -63, 13, -24, -46, -29, 72, -35, 7, 12, -5, 39, 59, 94, 4, -8, 93, -11, 21, 53, -60, 53, -21, -37, 67, 27, 35, 11, 82, -25, 80, 11, 88, 94, -3, 80, -20, 84, 55, 73, -44, 39, 14, 37, 85, 71, -58, -18, 4, -74, -22, 81, 57, 62, -69, -32, -6, -59, 84, -44, -57, 46, -45, -54, 1, 3, -23, -1, -57, 26, -5, -39, -11, -21, 3, 74, 9, 73, -28, -27, 46, 10, 35, -34, 37, -75, -56, -46, 38, 8, 33, 8, 33, 54, 0, 1, 34, -55, -48, 35, 0, -8, 7, 42, 4, 35, 55, -40, 18, -16, -59, -40, 53, 45, 87, -3, -27, -16, 19, -62, -6, -30, 23, 33, -20, 71, -68, -5, 85, 2, -34, 2, 52, -44, 61, 41, 45, 2, 61, -16, 42, -29, -58, -8, 48, -3, -7, -5, -58, -60, -54, -13, 61, 86, 17, 41, 7, -24, 11, 93, 73, 79, -13, -22, 78, 36, 39, 91, 18, -8, -72, 62, 10, 63, -33, 80, -27, 35, 46, 41, 26, 66, 88, 30, -72, -32, -58, 14, 70, -50, -7, -39, -4, 49, 62, -26, -60, 85, -48, 14, 75, 72, -74, 49, 96, 17, 54, 31, -33, 91, -24, 9, 30, 15, -24, 25, -19, -89, -3, -35, 11, 14, 13, 28, 3, 2, 52, 47, -61, 74, 105, 29, -22, -17, 63, -48, 3, -35, 
  -32, -72, 10, -13, 63, -64, -41, -73, -60, 50, -15, -69, 31, 56, -18, 72, 24, -22, 79, -15, 49, 58, -42, 63, 51, -16, 14, -35, 80, -14, -25, 28, -73, 79, 60, 60, 79, -48, -61, -43, 1, 19, -61, -30, -79, -27, 88, 58, -4, 93, 65, -68, -77, 22, -47, -77, -51, 28, -9, 44, -22, -55, -61, 64, 18, 25, 61, 38, 14, 65, 6, -38, 44, 54, 26, -84, -31, 67, -72, -67, 15, 36, 73, 55, 85, 72, -73, -43, 3, 57, -58, 78, 14, 12, -61, -77, 29, 4, 48, -21, -61, 52, 48, 35, 3, -74, -5, 71, 40, 11, -9, -32, -2, -48, -61, 9, -46, -30, 77, 52, 56, -4, 27, -45, 31, 36, -84, 45, -49, 65, -4, 40, 65, -10, 26, 79, 53, 4, 70, 83, 55, 18, 73, -25, -37, -26, -82, 61, -27, -86, 20, -62, -8, 34, 1, 88, -64, 53, -28, -39, 60, -25, -86, -30, -63, -85, -2, 83, -37, -45, 80, -46, -76, 29, 42, 53, -31, 21, -40, -81, -63, -19, -32, -12, 65, -60, -51, -66, -43, -60, -7, 88, 14, 55, -41, 80, -20, 28, -45, -39, 16, 46, -54, 73, 12, -70, 24, 84, 23, -3, 45, -73, -41, 54, 78, 65, 61, -35, -27, -28, 42, 88, 3, -18, 67, 83, 62, -19, -64, 48, 25, -29, 25, 50, -35, -53, 24, 20, -60, 45, -60, 50, 88, -61, -70, 27, 55, -50, -44, 56, -70, 64, -61, 69, 42, -77, -36, 88, -3, 62, 33, 69, 82, 54, -3, -56, -38, -73, -3, -80, 76, 37, -45, -76, -31, 82, 24, 0, 14, -20, 13, -14, 90, -45, -19, 6, -22, 23, 54, -78, 21, 11, 11, 14, 85, -57, 24, -15, 76, -53, 86, 74, 46, 49, 10, -13, -42, -30, 85, 76, 6, 79, -9, 42, -29, 80, 1, -15, -13, 86, -77, -44, 8, 70, 1, 78, 82, 36, -50, 3, -9, 81, -77, 23, 28, -70, 65, 87, 85, -62, 31, -86, 107, -101, -52, 13, 115, -105, -95, 53, 48, 74, 45, -15, -32, 6, -12, -3, 115, -95, 41, -67, -7, 78, 27, 53, -32, 64, -62, -66, -81, 23, -40, -5, -40, -7, -49, 7, 95, -11, -79, 60, 
  26, -77, -38, 9, 86, 91, -63, 88, -4, 28, 20, 31, 84, 33, -7, -52, -74, -8, -62, -25, -57, -58, 6, -19, -29, -75, -51, 78, -7, 14, 36, -76, -55, -82, -6, 27, 48, 1, 78, -17, 89, 46, 76, -52, 76, -36, 4, 57, 92, 59, 34, 45, -56, -36, 85, -28, 20, 60, 49, -10, 5, -24, -11, -59, 59, 69, 72, 72, 22, 86, -66, -15, 58, -18, 42, -63, -45, -38, 41, -44, -34, 36, -25, -30, 51, 19, 65, 78, -6, -79, 7, 18, -61, 43, -84, -62, -40, 75, -7, -46, 12, 75, 27, -56, -47, 32, 1, -6, -28, 33, 49, -82, -57, 19, -60, 40, 41, -51, 50, -69, 4, -28, -42, -28, 79, 16, -68, 63, 28, 64, -69, -72, 19, -8, -72, -78, 43, -25, -36, 66, 73, -12, 51, -86, -29, 55, 38, -44, 46, 76, -34, -65, -71, -60, -7, 80, -54, -10, 55, -36, -22, 56, 40, 20, 6, 3, 53, -75, -63, -28, 81, -26, 31, 23, -19, -66, 23, 65, -15, 4, 49, -60, -49, 14, 23, 29, -76, 11, 86, 55, -20, -80, 33, 50, -22, 12, -65, -13, 49, -84, -44, 8, 22, 41, 72, 32, 33, -44, -27, 54, 21, 89, 27, -55, -56, 76, -27, -23, -24, 79, -60, 83, 43, 79, -15, 38, -80, 40, 80, 84, -59, -2, 58, 8, -29, -81, -70, -60, -1, 48, 22, -41, -52, 30, -55, 64, -66, -11, -14, 85, 72, -35, -63, 65, -83, -56, 22, -68, 7, -16, -43, 75, -33, -7, -57, 0, -52, 30, 81, -69, -14, 18, -59, 27, 82, -24, 7, -24, -21, -23, 41, 77, -24, -34, 75, 52, 25, 59, 55, -14, -5, -73, -20, 82, 45, 65, 9, 36, 68, -23, 53, 77, -58, 12, -61, -26, 30, 46, 62, 48, -69, 86, -49, 64, -15, -52, 42, -47, -31, 1, -53, -34, -63, 73, 67, -5, -18, -40, 22, 30, 18, -37, -10, -72, -50, -76, 12, 5, 44, 87, 82, -38, 21, 35, -85, 12, 100, -63, -70, -29, 77, -19, -35, -55, -20, -56, 67, -4, 9, -90, 45, -60, 16, 60, -57, -75, 47, -14, -63, -84, 48, 39, 55, -103, -49, -26, 61, 83, -11, 55, 24, 53, 
  82, -69, -43, 16, 8, -48, -35, 32, 44, 32, 88, -82, -71, 85, -82, -30, -74, 16, 52, -63, 75, 85, -41, 64, -76, -49, -8, -65, 71, -20, 88, -42, -35, 60, -8, -52, -65, 23, 70, -76, -83, 75, -77, 57, -8, 57, -28, -52, -79, -32, -13, 42, 32, -10, -61, -50, 81, -13, 79, -43, 11, 41, -44, 81, 19, 83, 80, 59, -10, 50, 14, -44, 83, -25, 81, 50, -28, 30, 6, 12, 53, 19, -49, -30, 21, -63, 71, 12, -61, 23, -30, 35, -2, 59, -61, 7, 77, 78, 82, 97, -67, 87, -51, 66, -65, -18, 62, -68, -22, -39, -26, 10, 94, 58, -66, 64, 96, -62, 72, 75, -39, -5, 2, -42, -52, -58, 4, 91, 88, -43, -21, -39, 8, 10, 67, 53, 83, 44, -65, 79, -20, 41, -21, -32, 71, 67, 40, -44, 58, 72, -17, -51, 77, 60, 51, -41, -14, 55, -17, -63, 42, 60, 13, -1, -58, -32, 42, 33, 68, -33, 57, 45, -28, -35, -65, 52, 84, 57, 38, 58, -75, -50, -54, 8, 35, 33, 21, 32, 84, 36, -60, 12, -23, 80, -15, -12, -69, 23, 64, 68, 85, -79, 75, -30, -79, 54, -73, -22, 2, 41, 34, 55, -24, -11, -7, 70, -31, -75, -75, 28, 7, 85, -35, 50, 60, 81, -8, -9, -34, -11, 63, 67, -26, 0, -38, -41, 10, 79, -66, -25, -21, 57, 80, -20, -8, -60, -69, 17, 11, -4, 10, -46, -31, 24, 22, -49, 40, -21, -64, 29, 70, -71, 74, -15, 0, 21, -26, -54, -18, 55, 65, -47, 85, 84, 89, -44, 7, -49, 81, -55, -5, -3, -57, 44, 61, 45, -66, 9, -33, -32, -57, -13, 50, -69, -25, 19, 89, -26, -80, -33, -18, 45, 58, -78, 25, -45, -10, 59, -50, 15, 23, -27, 72, -6, -83, -17, -30, 89, -34, 38, -29, 80, -78, -13, -74, 53, 24, -77, -29, 51, 9, -33, -75, -30, 4, 46, -25, -2, -26, -54, 61, 63, -88, 69, 37, -35, -54, 18, 102, -36, 23, -22, -43, -7, -72, 64, 59, 72, -73, -57, 11, 57, 15, -14, -55, -49, 45, 82, -10, 58, -46, 14, -60, -36, -1, -34, -59, -28, 66, -17, 76, 15, 
  -4, 68, -67, -83, -83, 20, -14, 10, 27, 24, -9, 29, -51, 36, 37, 62, 11, 34, 26, 47, -81, 68, -73, 34, 16, -3, -42, -35, -20, -51, 19, -33, -34, 41, -10, 15, -4, -82, 18, 72, 45, -44, 22, -64, 56, -56, -80, -25, -66, 55, 32, -11, 57, 69, 31, -52, 70, 33, -66, 67, -2, -56, 12, -40, 10, 31, 9, -54, 4, 51, -77, 66, 65, 69, 31, 57, -40, 15, 67, 27, -64, -55, 7, 75, 81, 61, 4, 40, 44, 81, -7, 80, 13, 50, 77, 55, -75, 37, 40, 34, 60, 69, 77, -30, 54, -58, 9, 29, 80, -53, 21, -76, -88, 11, 45, -58, -34, -79, -7, -13, -49, 13, -15, -35, 28, -25, -54, -44, -29, -68, -20, -30, 13, 67, -61, -39, -50, -29, 7, 8, -49, 21, -39, -10, 65, 10, 77, 6, -10, -70, 38, -34, -40, 63, 48, 31, -45, 55, -46, -73, -51, 77, -72, 45, 3, -29, -77, 52, 51, 4, -21, -44, -50, -59, 42, 79, -13, -85, -76, -24, 82, -39, -60, -50, -27, 14, -16, -37, -1, -87, -76, 48, 23, -75, 40, -72, -75, -72, 20, 31, 62, 69, -16, -29, 61, -8, 34, 58, -56, -79, -12, -52, -38, 69, -26, 66, 55, 39, -1, -61, -46, -75, 7, 46, -50, 7, 38, 10, -24, -8, 7, -26, 75, -75, -39, -59, -69, -49, 36, 30, -54, 59, -89, 17, -74, 14, 6, -46, 49, 14, -18, -69, 42, 48, -87, 3, 75, 38, -52, -76, -66, -25, 34, 77, 50, -80, 21, 66, -6, 4, -52, 9, -24, -22, -2, 7, 22, -43, -50, 2, -52, 31, -69, 62, -48, -21, -59, 60, 1, -49, 72, 21, 16, -59, -87, -55, -77, -76, -32, 51, 29, -5, 67, -78, 62, -4, 41, -26, 2, 81, -65, -34, -28, 22, -59, -80, 66, -59, 70, 82, 40, 57, -47, -82, 24, 34, 23, -71, -82, -5, 32, 9, -59, 33, -46, -81, 15, -60, 76, 52, -15, 21, -53, -54, 3, -46, -40, -82, 15, -37, 83, -49, -13, -48, 70, -39, -36, -34, -5, 33, -65, 30, 43, 67, 84, -5, -55, 35, -21, 21, 69, -22, -9, 20, -28, 44, -61, 28, 32, -51, -59, 69, 
  5, -51, -30, 4, 75, -15, -24, -57, 34, -72, -76, -21, 26, 48, -23, 35, -59, -39, 41, -25, -66, -42, 40, -29, 39, -21, -11, 66, -55, 65, 38, 2, 71, -55, -22, -42, 32, -69, -31, 9, 8, -15, 18, 70, -9, -65, 70, -73, -2, -30, 10, -7, -12, -61, -7, -79, -10, -20, 58, -57, -52, 74, -49, 10, -59, 39, 3, -31, 2, 83, -68, -21, -43, 67, 63, 40, -43, 20, -53, 20, 14, 69, -90, -34, -4, 61, 6, -50, 75, -18, 9, 81, 73, 8, 7, -43, 2, -33, 64, -46, -20, -13, -11, -6, 79, 53, 39, 80, -21, -54, 41, 15, 52, -88, -83, 21, -32, 70, -50, -69, 48, -8, -59, -10, 80, 15, -11, -80, 73, 64, -16, 61, -20, 11, -62, -1, 61, -53, 82, -82, 70, -22, 53, -41, -52, 22, 78, 53, -6, 8, -49, -19, 54, 41, -1, -38, 30, 72, -60, -25, -86, 23, -24, 63, 55, -59, 66, -88, -26, 12, 41, -14, 34, 55, 35, -25, 37, 60, -90, 71, 58, -42, -83, 31, 72, -47, -59, 52, -83, 36, 77, -75, -66, 78, 80, 47, 22, -45, -28, 22, -53, 50, -63, -38, 76, 37, -74, -15, -52, -34, -68, 87, 49, 8, -40, -57, 68, 0, 59, 21, -66, -6, 77, -73, -6, 2, 49, -27, -58, 10, -81, -81, 61, -61, 19, 13, 78, 51, 77, 77, -46, -74, -48, -74, -53, -46, -14, -24, 40, 27, -15, 50, -72, -38, -44, 3, 38, 7, -79, 89, 54, -12, -3, 11, 4, 51, -6, -37, -75, -47, -47, 33, -38, -10, -71, -72, -62, -71, -38, -18, -63, -61, -6, 79, 21, 47, 9, -56, 9, 71, -15, -74, 8, -25, -5, -9, -59, 80, -40, -27, 84, 16, 33, 56, 28, 27, 14, 18, -64, 20, 57, -33, 28, -51, 62, 6, -15, -29, 2, 84, 75, -24, 69, -52, 60, -33, -1, -4, -41, -76, 74, 64, -22, 17, 47, -1, 61, 30, 49, 54, 89, -20, -63, -11, -71, 48, 123, -60, 17, -27, -7, 16, -25, 36, -76, -20, 82, -52, -26, -87, -41, -28, -8, -72, -26, 10, 56, -50, -89, -31, 20, 36, 125, -82, 43, 66, 104, -26, -89, 9, 19, -28, 
  -16, 40, 74, 53, 58, -29, -36, 69, 28, -13, -28, 80, -33, 57, -65, -31, -66, 23, 77, -47, 43, -39, -67, 80, -47, -70, -44, 28, -7, -51, -15, -65, 1, 26, 8, 84, 77, -47, 56, -75, -85, -23, 85, -30, 27, -56, 6, 78, -66, 40, -41, -49, 78, 46, 23, -63, 64, -69, -18, -39, 27, -65, 45, 79, -14, 48, -6, 4, 28, -23, 66, -25, 57, 87, 44, 29, -63, -57, 69, -64, -62, -69, -68, 23, 46, 79, -30, 21, 27, 40, 5, 89, -68, -33, 72, 52, 46, -18, 91, -68, 85, 41, 7, -52, -47, -74, -61, 85, 34, -75, -64, -28, 78, 17, -46, 38, 72, 94, -36, -12, -52, 80, 32, 82, 7, 43, 46, 82, 90, 90, 51, 50, -41, 79, 15, -10, 81, 50, 21, -8, -79, -71, -76, 70, 55, 8, 31, 41, 80, 4, 49, 79, -72, -61, 25, -21, -7, 35, 38, -37, -57, -69, -74, -1, 78, 73, -68, -32, 77, 22, -82, -27, 64, 71, 67, 72, 20, 16, -21, 69, 90, 78, 86, -30, -66, 45, 81, -21, 17, -62, 63, 69, 6, 82, 76, -60, 27, 73, 40, -40, 4, -39, 16, -48, 23, -38, 33, -19, 39, -34, -68, -8, -2, 7, -8, 49, -35, -67, 22, -73, -20, -24, -10, -30, -56, -10, -3, -51, -80, 16, 71, -11, 54, 40, 43, -9, 15, 39, 39, -46, 86, -68, -28, -85, -43, -2, 67, 51, 81, -22, 28, 63, -60, -33, 38, -50, -75, 17, -53, 84, 80, 82, -12, 39, -5, -38, -60, 18, -44, -32, 70, -38, 54, -72, 77, 27, 69, 28, 38, 45, -14, -9, -55, -9, -49, 36, -52, -64, 24, -14, -50, 24, -78, -10, 25, -70, -18, -19, -76, 59, 23, 16, 43, -29, -28, 12, -82, -11, 8, -19, 20, -83, 42, 35, -78, 35, -67, -6, 24, 24, -67, -68, 35, -70, 28, -19, -86, 38, 80, 51, -86, -17, -6, 10, -54, 34, 36, -4, -73, 80, 29, 69, -60, 54, -24, 41, -17, 18, 33, -54, 5, 35, 62, -7, -59, 83, -30, -46, 31, -34, -80, 19, -51, -92, 59, -38, 89, -41, 32, 95, 9, 7, -91, 61, 54, -53, -3, -44, -19, -43, -1, -28, 
  -69, -21, 46, -88, 40, 7, -56, -8, -2, -29, -74, -33, -74, -61, -65, -44, 2, -48, -45, 34, -42, 70, -48, 66, -35, -76, -2, -21, -75, -58, 38, -35, -53, -69, 87, 70, 23, -56, -67, -29, -64, 22, -49, 42, 6, -10, 86, 19, -66, -77, 6, -70, 41, -45, 55, -57, -53, -46, -20, 65, -23, -41, -50, 68, 48, -39, 80, -65, 7, 78, 56, 54, 69, -28, -74, 36, 84, 24, -16, 33, 33, 47, 83, 8, 45, 18, 77, 12, 6, -63, -73, 76, 67, -15, -49, -52, 59, 33, 97, -40, -73, 92, 23, 10, -39, 15, -35, -54, 18, 59, -44, 23, -70, -30, -34, -50, 53, 47, -66, -73, 76, -43, -10, 24, 31, 90, -9, -24, 17, 24, -67, -24, 16, 9, -2, -37, 25, 84, -30, 38, 68, -17, -8, -22, 84, 75, 30, 35, -4, -10, 5, 43, 83, 40, 3, -37, 55, -29, 88, -4, 36, -27, 42, -61, -14, -60, -25, 98, 3, 60, 72, -61, 89, 73, -4, 49, -47, -36, 71, 61, 45, -26, -64, 86, 77, -56, -69, -48, -6, 18, 8, 15, -16, -28, 23, -22, -30, -30, 57, -56, 62, -61, -23, 44, -12, -38, -49, 27, -19, -51, 11, 12, 73, 86, -33, 26, 72, 72, -4, 86, -44, 67, -12, 80, -11, 64, -53, 41, -1, -23, 27, -12, 61, -66, 14, -68, -35, 5, 49, -69, 22, -18, -3, -9, -31, 19, 23, -34, 7, -6, -18, 82, 57, -68, -37, -21, 87, -78, 3, 43, -41, 57, 68, -72, -76, 66, 14, 65, -63, 59, 81, -59, -24, 21, -27, -21, -71, -63, 60, 9, 86, 6, -20, 40, -67, -70, -7, -8, 24, 60, 7, -61, -11, 10, -18, -16, 3, 19, -75, 37, -32, 75, 84, 66, 15, -62, -61, 32, 4, 1, -31, 67, 4, 58, -28, 70, -26, 72, 5, -1, 4, 44, 13, 53, 34, -46, 14, 17, 83, 29, 63, 78, 32, -12, -80, -35, 62, 60, 46, 67, -64, -44, -93, 52, -39, 31, -26, 21, -52, -29, 5, -102, -83, 83, -33, 40, 68, -68, 41, 44, 1, 22, 9, -73, -55, -66, 48, -46, 56, 103, 21, -21, -69, 27, 4, 8, -33, -24, -93, 9, 105, -37, 
  -3, 63, 4, -43, -17, -29, 24, -12, 59, 57, -69, 66, 55, -3, -4, -36, -6, -72, -47, 23, -34, -77, 64, -69, -3, 1, -55, -37, 31, 65, -60, 12, 74, -37, 7, 27, -80, 17, 3, -14, -57, -58, 22, 45, 2, -68, -78, 24, -6, 2, 26, 39, -73, 30, 37, -43, 45, -69, -56, 74, -66, 60, -61, 31, -63, -7, -13, -55, -62, -51, -82, 57, -25, -10, -18, 32, -70, -84, -70, -39, 69, -6, 1, -65, -17, 30, 77, -8, 27, -3, -81, 13, -56, -15, 28, -69, -56, -59, 86, -51, -26, 65, 58, -67, -14, 56, -76, -58, 0, 53, 89, 72, -70, -51, 42, 15, 4, -46, -36, -7, 86, 12, 41, -39, 25, 59, -74, 4, -40, 13, -61, 6, 71, 53, 14, 87, 40, 68, -42, -33, 33, -53, 31, 27, 7, 68, -60, 67, -17, 35, -82, 45, -14, -32, 5, -79, -65, -16, 0, 47, -66, -80, 69, -26, 27, -64, 54, 52, 69, -56, -32, 53, 35, -23, 14, 47, -65, 6, -53, -27, 17, -56, -25, -10, -28, 29, -63, -23, -27, 74, -27, -21, 86, 39, 7, 55, -68, -62, 75, -68, 35, -84, 8, 49, 42, -16, -49, 68, 19, 27, -15, -14, -27, 11, 26, 27, -36, 46, 54, -45, -40, 56, 36, -15, 36, 68, -83, -42, -54, -78, 67, -45, -41, -9, 5, 65, -45, 75, 10, -8, 82, -64, -32, -86, -70, -10, -45, 84, 24, -52, -83, -16, -78, 63, -19, 38, 85, -18, 87, -40, -42, 64, -83, -16, 87, -62, 73, 28, 57, -58, 46, 88, 67, 24, 18, -33, -20, 57, 37, 39, -46, 31, 65, 19, 27, 35, -18, 87, 29, 77, 78, 75, -13, 38, -4, 58, -43, 42, 56, 61, 25, -50, 79, 67, -73, -42, -77, 86, -25, -39, 54, -44, -75, 43, -71, 71, -11, -16, -34, 45, -1, -20, -90, -61, -20, 33, -41, 22, -54, -18, -21, -27, -85, 18, -5, 12, -28, -34, 76, 52, -6, -17, 46, -68, 93, -49, -37, 10, 4, -63, -32, -63, -31, -28, 41, -75, 36, -9, 46, 27, -1, -100, -54, -25, 71, 17, -15, 76, -25, 89, 94, 20, -47, -50, -38, -109, 56, -63, -32, 72, -55, -84, 
};
const TfArray<2, int> tensor_dimension6 = { 2, { 20,382 } };
const TfArray<1, float> quant6_scale = { 1, { 0.0014235761482268572, } };
const TfLiteAffineQuantization quant6 = { (TfLiteFloatArray*)&quant6_scale, (TfLiteIntArray*)&g0::quant1_zero, 0 };
const TfArray<2, int> tensor_dimension7 = { 2, { 1,20 } };
const TfArray<1, float> quant7_scale = { 1, { 0.03170400857925415, } };
const TfArray<1, int> quant7_zero = { 1, { -128 } };
const TfLiteAffineQuantization quant7 = { (TfLiteFloatArray*)&quant7_scale, (TfLiteIntArray*)&quant7_zero, 0 };
const TfArray<2, int> tensor_dimension8 = { 2, { 1,10 } };
const TfArray<1, float> quant8_scale = { 1, { 0.050733119249343872, } };
const TfLiteAffineQuantization quant8 = { (TfLiteFloatArray*)&quant8_scale, (TfLiteIntArray*)&g0::quant7_zero, 0 };
const TfArray<2, int> tensor_dimension9 = { 2, { 1,2 } };
const TfArray<1, float> quant9_scale = { 1, { 0.055017139762639999, } };
const TfArray<1, int> quant9_zero = { 1, { -16 } };
const TfLiteAffineQuantization quant9 = { (TfLiteFloatArray*)&quant9_scale, (TfLiteIntArray*)&quant9_zero, 0 };
const TfArray<1, float> quant10_scale = { 1, { 0.00390625, } };
const TfLiteAffineQuantization quant10 = { (TfLiteFloatArray*)&quant10_scale, (TfLiteIntArray*)&g0::quant7_zero, 0 };
const TfLiteFullyConnectedParams opdata0 = { kTfLiteActRelu, kTfLiteFullyConnectedWeightsFormatDefault, false, false };
const TfArray<3, int> inputs0 = { 3, { 0,6,5 } };
const TfArray<1, int> outputs0 = { 1, { 7 } };
const TfLiteFullyConnectedParams opdata1 = { kTfLiteActRelu, kTfLiteFullyConnectedWeightsFormatDefault, false, false };
const TfArray<3, int> inputs1 = { 3, { 7,4,3 } };
const TfArray<1, int> outputs1 = { 1, { 8 } };
const TfLiteFullyConnectedParams opdata2 = { kTfLiteActNone, kTfLiteFullyConnectedWeightsFormatDefault, false, false };
const TfArray<3, int> inputs2 = { 3, { 8,2,1 } };
const TfArray<1, int> outputs2 = { 1, { 9 } };
const TfLiteSoftmaxParams opdata3 = { 1 };
const TfArray<1, int> inputs3 = { 1, { 9 } };
const TfArray<1, int> outputs3 = { 1, { 10 } };
};

TensorInfo_t tensorData[] = {
{ kTfLiteArenaRw, kTfLiteInt8, (int32_t*)(tensor_arena + 0), (TfLiteIntArray*)&g0::tensor_dimension0, 382, {kTfLiteAffineQuantization, const_cast<void*>(static_cast<const void*>(&g0::quant0))}, },
{ kTfLiteMmapRo, kTfLiteInt32, (int32_t*)g0::tensor_data1, (TfLiteIntArray*)&g0::tensor_dimension1, 8, {kTfLiteAffineQuantization, const_cast<void*>(static_cast<const void*>(&g0::quant1))}, },
{ kTfLiteMmapRo, kTfLiteInt8, (int32_t*)g0::tensor_data2, (TfLiteIntArray*)&g0::tensor_dimension2, 20, {kTfLiteAffineQuantization, const_cast<void*>(static_cast<const void*>(&g0::quant2))}, },
{ kTfLiteMmapRo, kTfLiteInt32, (int32_t*)g0::tensor_data3, (TfLiteIntArray*)&g0::tensor_dimension3, 40, {kTfLiteAffineQuantization, const_cast<void*>(static_cast<const void*>(&g0::quant3))}, },
{ kTfLiteMmapRo, kTfLiteInt8, (int32_t*)g0::tensor_data4, (TfLiteIntArray*)&g0::tensor_dimension4, 200, {kTfLiteAffineQuantization, const_cast<void*>(static_cast<const void*>(&g0::quant4))}, },
{ kTfLiteMmapRo, kTfLiteInt32, (int32_t*)g0::tensor_data5, (TfLiteIntArray*)&g0::tensor_dimension5, 80, {kTfLiteAffineQuantization, const_cast<void*>(static_cast<const void*>(&g0::quant5))}, },
{ kTfLiteMmapRo, kTfLiteInt8, (int32_t*)g0::tensor_data6, (TfLiteIntArray*)&g0::tensor_dimension6, 7640, {kTfLiteAffineQuantization, const_cast<void*>(static_cast<const void*>(&g0::quant6))}, },
{ kTfLiteArenaRw, kTfLiteInt8, (int32_t*)(tensor_arena + 384), (TfLiteIntArray*)&g0::tensor_dimension7, 20, {kTfLiteAffineQuantization, const_cast<void*>(static_cast<const void*>(&g0::quant7))}, },
{ kTfLiteArenaRw, kTfLiteInt8, (int32_t*)(tensor_arena + 0), (TfLiteIntArray*)&g0::tensor_dimension8, 10, {kTfLiteAffineQuantization, const_cast<void*>(static_cast<const void*>(&g0::quant8))}, },
{ kTfLiteArenaRw, kTfLiteInt8, (int32_t*)(tensor_arena + 16), (TfLiteIntArray*)&g0::tensor_dimension9, 2, {kTfLiteAffineQuantization, const_cast<void*>(static_cast<const void*>(&g0::quant9))}, },
{ kTfLiteArenaRw, kTfLiteInt8, (int32_t*)(tensor_arena + 0), (TfLiteIntArray*)&g0::tensor_dimension9, 2, {kTfLiteAffineQuantization, const_cast<void*>(static_cast<const void*>(&g0::quant10))}, },
};

#ifndef TF_LITE_STATIC_MEMORY
TfLiteNode tflNodes[4] = {
{ (TfLiteIntArray*)&g0::inputs0, (TfLiteIntArray*)&g0::outputs0, (TfLiteIntArray*)&g0::inputs0, nullptr, nullptr, const_cast<void*>(static_cast<const void*>(&g0::opdata0)), nullptr, 0, },
{ (TfLiteIntArray*)&g0::inputs1, (TfLiteIntArray*)&g0::outputs1, (TfLiteIntArray*)&g0::inputs1, nullptr, nullptr, const_cast<void*>(static_cast<const void*>(&g0::opdata1)), nullptr, 0, },
{ (TfLiteIntArray*)&g0::inputs2, (TfLiteIntArray*)&g0::outputs2, (TfLiteIntArray*)&g0::inputs2, nullptr, nullptr, const_cast<void*>(static_cast<const void*>(&g0::opdata2)), nullptr, 0, },
{ (TfLiteIntArray*)&g0::inputs3, (TfLiteIntArray*)&g0::outputs3, (TfLiteIntArray*)&g0::inputs3, nullptr, nullptr, const_cast<void*>(static_cast<const void*>(&g0::opdata3)), nullptr, 0, },
};
#else
TfLiteNode tflNodes[4] = {
{ (TfLiteIntArray*)&g0::inputs0, (TfLiteIntArray*)&g0::outputs0, (TfLiteIntArray*)&g0::inputs0, nullptr, const_cast<void*>(static_cast<const void*>(&g0::opdata0)), nullptr, 0, },
{ (TfLiteIntArray*)&g0::inputs1, (TfLiteIntArray*)&g0::outputs1, (TfLiteIntArray*)&g0::inputs1, nullptr, const_cast<void*>(static_cast<const void*>(&g0::opdata1)), nullptr, 0, },
{ (TfLiteIntArray*)&g0::inputs2, (TfLiteIntArray*)&g0::outputs2, (TfLiteIntArray*)&g0::inputs2, nullptr, const_cast<void*>(static_cast<const void*>(&g0::opdata2)), nullptr, 0, },
{ (TfLiteIntArray*)&g0::inputs3, (TfLiteIntArray*)&g0::outputs3, (TfLiteIntArray*)&g0::inputs3, nullptr, const_cast<void*>(static_cast<const void*>(&g0::opdata3)), nullptr, 0, },
};
#endif

used_operators_e used_ops[] =
{OP_FULLY_CONNECTED, OP_FULLY_CONNECTED, OP_FULLY_CONNECTED, OP_SOFTMAX, };


// Indices into tflTensors and tflNodes for subgraphs
const size_t tflTensors_subgraph_index[] = {0, 11, };
const size_t tflNodes_subgraph_index[] = {0, 4, };

// Input/output tensors
static const int in_tensor_indices[] = {
  0, 
};

static const int out_tensor_indices[] = {
  10, 
};


size_t current_subgraph_index = 0;

static void init_tflite_tensor(size_t i, TfLiteTensor *tensor) {
  tensor->type = tensorData[i].type;
  tensor->is_variable = false;

#if defined(EI_CLASSIFIER_ALLOCATION_HEAP)
  tensor->allocation_type = tensorData[i].allocation_type;
#else
  tensor->allocation_type = (tensor_arena <= tensorData[i].data && tensorData[i].data < tensor_arena + kTensorArenaSize) ? kTfLiteArenaRw : kTfLiteMmapRo;
#endif
  tensor->bytes = tensorData[i].bytes;
  tensor->dims = tensorData[i].dims;

#if defined(EI_CLASSIFIER_ALLOCATION_HEAP)
  if(tensor->allocation_type == kTfLiteArenaRw){
    uint8_t* start = (uint8_t*) ((uintptr_t)tensorData[i].data + (uintptr_t) tensor_arena);

    tensor->data.data =  start;
  }
  else {
      tensor->data.data = tensorData[i].data;
  }
#else
  tensor->data.data = tensorData[i].data;
#endif // EI_CLASSIFIER_ALLOCATION_HEAP
  tensor->quantization = tensorData[i].quantization;
  if (tensor->quantization.type == kTfLiteAffineQuantization) {
    TfLiteAffineQuantization const* quant = ((TfLiteAffineQuantization const*)(tensorData[i].quantization.params));
    tensor->params.scale = quant->scale->data[0];
    tensor->params.zero_point = quant->zero_point->data[0];
  }

}

static void init_tflite_eval_tensor(int i, TfLiteEvalTensor *tensor) {

  tensor->type = tensorData[i].type;

  tensor->dims = tensorData[i].dims;

#if defined(EI_CLASSIFIER_ALLOCATION_HEAP)
  auto allocation_type = tensorData[i].allocation_type;
  if(allocation_type == kTfLiteArenaRw) {
    uint8_t* start = (uint8_t*) ((uintptr_t)tensorData[i].data + (uintptr_t) tensor_arena);

    tensor->data.data =  start;
  }
  else {
    tensor->data.data = tensorData[i].data;
  }
#else
  tensor->data.data = tensorData[i].data;
#endif // EI_CLASSIFIER_ALLOCATION_HEAP
}

static void* overflow_buffers[EI_MAX_OVERFLOW_BUFFER_COUNT];
static size_t overflow_buffers_ix = 0;
static void * AllocatePersistentBufferImpl(struct TfLiteContext* ctx,
                                       size_t bytes) {
  void *ptr;
  uint32_t align_bytes = (bytes % 16) ? 16 - (bytes % 16) : 0;

  if (current_location - (bytes + align_bytes) < tensor_boundary) {
    if (overflow_buffers_ix > EI_MAX_OVERFLOW_BUFFER_COUNT - 1) {
      ei_printf("ERR: Failed to allocate persistent buffer of size %d, does not fit in tensor arena and reached EI_MAX_OVERFLOW_BUFFER_COUNT\n",
        (int)bytes);
      return NULL;
    }

    // OK, this will look super weird, but.... we have CMSIS-NN buffers which
    // we cannot calculate beforehand easily.
    ptr = ei_calloc(bytes, 1);
    if (ptr == NULL) {
      ei_printf("ERR: Failed to allocate persistent buffer of size %d\n", (int)bytes);
      return NULL;
    }
    overflow_buffers[overflow_buffers_ix++] = ptr;
    return ptr;
  }

  current_location -= bytes;

  // align to the left aligned boundary of 16 bytes
  current_location -= 15; // for alignment
  current_location += 16 - ((uintptr_t)(current_location) & 15);

  ptr = current_location;
  memset(ptr, 0, bytes);

  return ptr;
}

typedef struct {
  size_t bytes;
  void *ptr;
} scratch_buffer_t;

static scratch_buffer_t scratch_buffers[EI_MAX_SCRATCH_BUFFER_COUNT];
static size_t scratch_buffers_ix = 0;

static TfLiteStatus RequestScratchBufferInArenaImpl(struct TfLiteContext* ctx, size_t bytes,
                                                int* buffer_idx) {
  if (scratch_buffers_ix > EI_MAX_SCRATCH_BUFFER_COUNT - 1) {
    ei_printf("ERR: Failed to allocate scratch buffer of size %d, reached EI_MAX_SCRATCH_BUFFER_COUNT\n",
      (int)bytes);
    return kTfLiteError;
  }

  scratch_buffer_t b;
  b.bytes = bytes;

  b.ptr = AllocatePersistentBufferImpl(ctx, b.bytes);
  if (!b.ptr) {
    ei_printf("ERR: Failed to allocate scratch buffer of size %d\n",
      (int)bytes);
    return kTfLiteError;
  }

  scratch_buffers[scratch_buffers_ix] = b;
  *buffer_idx = scratch_buffers_ix;

  scratch_buffers_ix++;

  return kTfLiteOk;
}

static void* GetScratchBufferImpl(struct TfLiteContext* ctx, int buffer_idx) {
  if (buffer_idx > (int)scratch_buffers_ix) {
    return NULL;
  }
  return scratch_buffers[buffer_idx].ptr;
}

static const uint16_t TENSOR_IX_UNUSED = 0x7FFF;

static void ResetTensors() {
  for (size_t ix = 0; ix < MAX_TFL_TENSOR_COUNT; ix++) {
    tflTensors[ix].index = TENSOR_IX_UNUSED;
  }
  for (size_t ix = 0; ix < MAX_TFL_EVAL_COUNT; ix++) {
    tflEvalTensors[ix].index = TENSOR_IX_UNUSED;
  }
}

static TfLiteTensor* GetTensorImpl(const struct TfLiteContext* context,
                               int tensor_idx) {

  tensor_idx = tflTensors_subgraph_index[current_subgraph_index] + tensor_idx;

  for (size_t ix = 0; ix < MAX_TFL_TENSOR_COUNT; ix++) {
    // already used? OK!
    if (tflTensors[ix].index == tensor_idx) {
      return &tflTensors[ix].tensor;
    }
    // passed all the ones we've used, so end of the list?
    if (tflTensors[ix].index == TENSOR_IX_UNUSED) {
      // init the tensor
      init_tflite_tensor(tensor_idx, &tflTensors[ix].tensor);
      tflTensors[ix].index = tensor_idx;
      return &tflTensors[ix].tensor;
    }
  }

  ei_printf("ERR: GetTensor called beyond MAX_TFL_TENSOR_COUNT (%d)\n", MAX_TFL_TENSOR_COUNT);
  return nullptr;
}

static TfLiteEvalTensor* GetEvalTensorImpl(const struct TfLiteContext* context,
                                       int tensor_idx) {

  tensor_idx = tflTensors_subgraph_index[current_subgraph_index] + tensor_idx;

  for (size_t ix = 0; ix < MAX_TFL_EVAL_COUNT; ix++) {
    // already used? OK!
    if (tflEvalTensors[ix].index == tensor_idx) {
      return &tflEvalTensors[ix].tensor;
    }
    // passed all the ones we've used, so end of the list?
    if (tflEvalTensors[ix].index == TENSOR_IX_UNUSED) {
      // init the tensor
      init_tflite_eval_tensor(tensor_idx, &tflEvalTensors[ix].tensor);
      tflEvalTensors[ix].index = tensor_idx;
      return &tflEvalTensors[ix].tensor;
    }
  }

  ei_printf("ERR: GetTensor called beyond MAX_TFL_EVAL_COUNT (%d)\n", (int)MAX_TFL_EVAL_COUNT);
  return nullptr;
}

class EonMicroContext : public MicroContext {
 public:
 
  EonMicroContext(): MicroContext(nullptr, nullptr, nullptr) { }

  void* AllocatePersistentBuffer(size_t bytes) {
    return AllocatePersistentBufferImpl(nullptr, bytes);
  }

  TfLiteStatus RequestScratchBufferInArena(size_t bytes,
                                           int* buffer_index) {
  return RequestScratchBufferInArenaImpl(nullptr, bytes, buffer_index);
  }

  void* GetScratchBuffer(int buffer_index) {
    return GetScratchBufferImpl(nullptr, buffer_index);
  }
 
  TfLiteTensor* AllocateTempTfLiteTensor(int tensor_index) {
    return GetTensorImpl(nullptr, tensor_index);
  }

  void DeallocateTempTfLiteTensor(TfLiteTensor* tensor) {
    return;
  }

  bool IsAllTempTfLiteTensorDeallocated() {
    return true;
  }

  TfLiteEvalTensor* GetEvalTensor(int tensor_index) {
    return GetEvalTensorImpl(nullptr, tensor_index);
  }

};


} // namespace

TfLiteStatus tflite_learn_796726_5_init( void*(*alloc_fnc)(size_t,size_t) ) {
#ifdef EI_CLASSIFIER_ALLOCATION_HEAP
  tensor_arena = (uint8_t*) alloc_fnc(16, kTensorArenaSize);
  if (!tensor_arena) {
    ei_printf("ERR: failed to allocate tensor arena\n");
    return kTfLiteError;
  }
#else
  memset(tensor_arena, 0, kTensorArenaSize);
#endif
  tensor_boundary = tensor_arena;
  current_location = tensor_arena + kTensorArenaSize;

  EonMicroContext micro_context_;
  
  // Set microcontext as the context ptr
  ctx.impl_ = static_cast<void*>(&micro_context_);
  // Setup tflitecontext functions
  ctx.AllocatePersistentBuffer = &AllocatePersistentBufferImpl;
  ctx.RequestScratchBufferInArena = &RequestScratchBufferInArenaImpl;
  ctx.GetScratchBuffer = &GetScratchBufferImpl;
  ctx.GetTensor = &GetTensorImpl;
  ctx.GetEvalTensor = &GetEvalTensorImpl;
  ctx.ReportError = &MicroContextReportOpError;

  ctx.tensors_size = 11;
  for (size_t i = 0; i < 11; ++i) {
    TfLiteTensor tensor;
    init_tflite_tensor(i, &tensor);
    if (tensor.allocation_type == kTfLiteArenaRw) {
      auto data_end_ptr = (uint8_t*)tensor.data.data + tensorData[i].bytes;
      if (data_end_ptr > tensor_boundary) {
        tensor_boundary = data_end_ptr;
      }
    }
  }

  if (tensor_boundary > current_location /* end of arena size */) {
    ei_printf("ERR: tensor arena is too small, does not fit model - even without scratch buffers\n");
    return kTfLiteError;
  }

  registrations[OP_FULLY_CONNECTED] = Register_FULLY_CONNECTED();
  registrations[OP_SOFTMAX] = Register_SOFTMAX();

  for (size_t g = 0; g < 1; ++g) {
    current_subgraph_index = g;
    for(size_t i = tflNodes_subgraph_index[g]; i < tflNodes_subgraph_index[g+1]; ++i) {
      if (registrations[used_ops[i]].init) {
        tflNodes[i].user_data = registrations[used_ops[i]].init(&ctx, (const char*)tflNodes[i].builtin_data, 0);
      }
    }
  }
  current_subgraph_index = 0;

  for(size_t g = 0; g < 1; ++g) {
    current_subgraph_index = g;
    for(size_t i = tflNodes_subgraph_index[g]; i < tflNodes_subgraph_index[g+1]; ++i) {
      if (registrations[used_ops[i]].prepare) {
        ResetTensors();
        TfLiteStatus status = registrations[used_ops[i]].prepare(&ctx, &tflNodes[i]);
        if (status != kTfLiteOk) {
          return status;
        }
      }
    }
  }
  current_subgraph_index = 0;

  return kTfLiteOk;
}

TfLiteStatus tflite_learn_796726_5_input(int index, TfLiteTensor *tensor) {
  init_tflite_tensor(in_tensor_indices[index], tensor);
  return kTfLiteOk;
}

TfLiteStatus tflite_learn_796726_5_output(int index, TfLiteTensor *tensor) {
  init_tflite_tensor(out_tensor_indices[index], tensor);
  return kTfLiteOk;
}

TfLiteStatus tflite_learn_796726_5_invoke() {
  for (size_t i = 0; i < 4; ++i) {
    ResetTensors();

    TfLiteStatus status = registrations[used_ops[i]].invoke(&ctx, &tflNodes[i]);

#if EI_CLASSIFIER_PRINT_STATE
    ei_printf("layer %lu\n", i);
    ei_printf("    inputs:\n");
    for (size_t ix = 0; ix < tflNodes[i].inputs->size; ix++) {
      auto d = tensorData[tflNodes[i].inputs->data[ix]];

      size_t data_ptr = (size_t)d.data;

      if (d.allocation_type == kTfLiteArenaRw) {
        data_ptr = (size_t)tensor_arena + data_ptr;
      }

      if (d.type == TfLiteType::kTfLiteInt8) {
        int8_t* data = (int8_t*)data_ptr;
        ei_printf("        %lu (%zu bytes, ptr=%p, alloc_type=%d, type=%d): ", ix, d.bytes, data, (int)d.allocation_type, (int)d.type);
        for (size_t jx = 0; jx < d.bytes; jx++) {
          ei_printf("%d ", data[jx]);
        }
      }
      else {
        float* data = (float*)data_ptr;
        ei_printf("        %lu (%zu bytes, ptr=%p, alloc_type=%d, type=%d): ", ix, d.bytes, data, (int)d.allocation_type, (int)d.type);
        for (size_t jx = 0; jx < d.bytes / 4; jx++) {
          ei_printf("%f ", data[jx]);
        }
      }
      ei_printf("\n");
    }
    ei_printf("\n");

    ei_printf("    outputs:\n");
    for (size_t ix = 0; ix < tflNodes[i].outputs->size; ix++) {
      auto d = tensorData[tflNodes[i].outputs->data[ix]];

      size_t data_ptr = (size_t)d.data;

      if (d.allocation_type == kTfLiteArenaRw) {
        data_ptr = (size_t)tensor_arena + data_ptr;
      }

      if (d.type == TfLiteType::kTfLiteInt8) {
        int8_t* data = (int8_t*)data_ptr;
        ei_printf("        %lu (%zu bytes, ptr=%p, alloc_type=%d, type=%d): ", ix, d.bytes, data, (int)d.allocation_type, (int)d.type);
        for (size_t jx = 0; jx < d.bytes; jx++) {
          ei_printf("%d ", data[jx]);
        }
      }
      else {
        float* data = (float*)data_ptr;
        ei_printf("        %lu (%zu bytes, ptr=%p, alloc_type=%d, type=%d): ", ix, d.bytes, data, (int)d.allocation_type, (int)d.type);
        for (size_t jx = 0; jx < d.bytes / 4; jx++) {
          ei_printf("%f ", data[jx]);
        }
      }
      ei_printf("\n");
    }
    ei_printf("\n");
#endif // EI_CLASSIFIER_PRINT_STATE

    if (status != kTfLiteOk) {
      return status;
    }
  }
  return kTfLiteOk;
}

TfLiteStatus tflite_learn_796726_5_reset( void (*free_fnc)(void* ptr) ) {
#ifdef EI_CLASSIFIER_ALLOCATION_HEAP
  free_fnc(tensor_arena);
#endif

  // scratch buffers are allocated within the arena, so just reset the counter so memory can be reused
  scratch_buffers_ix = 0;

  // overflow buffers are on the heap, so free them first
  for (size_t ix = 0; ix < overflow_buffers_ix; ix++) {
    ei_free(overflow_buffers[ix]);
  }
  overflow_buffers_ix = 0;
  return kTfLiteOk;
}
